<?xml version="1.0"?>
<opencv_storage>
<stage5>
  <maxWeakCount>6</maxWeakCount>
  <stageThreshold>-1.1723498106002808e+00</stageThreshold>
  <weakClassifiers>
    <_>
      <internalNodes>
        0 -1 52195 -2.4624005891382694e-03</internalNodes>
      <leafValues>
        6.3368284702301025e-01 -7.4764150381088257e-01</leafValues></_>
    <_>
      <internalNodes>
        0 -1 56404 -6.2702987343072891e-03</internalNodes>
      <leafValues>
        6.3846886157989502e-01 -4.6236899495124817e-01</leafValues></_>
    <_>
      <internalNodes>
        0 -1 4867 8.1977657973766327e-03</internalNodes>
      <leafValues>
        -4.9514767527580261e-01 6.5327924489974976e-01</leafValues></_>
    <_>
      <internalNodes>
        0 -1 64941 4.7289608046412468e-03</internalNodes>
      <leafValues>
        -6.5062099695205688e-01 3.9617314934730530e-01</leafValues></_>
    <_>
      <internalNodes>
        0 -1 42230 9.8701752722263336e-04</internalNodes>
      <leafValues>
        -7.0042991638183594e-01 3.2534876465797424e-01</leafValues></_>
    <_>
      <internalNodes>
        0 -1 54236 -1.3010201975703239e-02</internalNodes>
      <leafValues>
        7.3543238639831543e-01 -3.4134182333946228e-01</leafValues></_></weakClassifiers></stage5>
</opencv_storage>
