<?xml version="1.0"?>
<opencv_storage>
<cascade>
  <stageType>BOOST</stageType>
  <featureType>HAAR</featureType>
  <height>20</height>
  <width>20</width>
  <stageParams>
    <boostType>GAB</boostType>
    <minHitRate>9.9500000476837158e-01</minHitRate>
    <maxFalseAlarm>5.0000000000000000e-01</maxFalseAlarm>
    <weightTrimRate>9.4999999999999996e-01</weightTrimRate>
    <maxDepth>1</maxDepth>
    <maxWeakCount>100</maxWeakCount></stageParams>
  <featureParams>
    <maxCatCount>0</maxCatCount>
    <featSize>1</featSize>
    <mode>BASIC</mode></featureParams>
  <stageNum>5</stageNum>
  <stages>
    <!-- stage 0 -->
    <_>
      <maxWeakCount>2</maxWeakCount>
      <stageThreshold>-1.0459404438734055e-01</stageThreshold>
      <weakClassifiers>
        <_>
          <internalNodes>
            0 -1 1 -8.8713718578219414e-03</internalNodes>
          <leafValues>
            9.6417683362960815e-01 -9.6394985914230347e-01</leafValues></_>
        <_>
          <internalNodes>
            0 -1 2 -1.8546305596828461e-02</internalNodes>
          <leafValues>
            8.5935580730438232e-01 -9.6577686071395874e-01</leafValues></_></weakClassifiers></_>
    <!-- stage 1 -->
    <_>
      <maxWeakCount>2</maxWeakCount>
      <stageThreshold>-9.3385644257068634e-02</stageThreshold>
      <weakClassifiers>
        <_>
          <internalNodes>
            0 -1 5 -1.3812016695737839e-02</internalNodes>
          <leafValues>
            8.5333818197250366e-01 -8.9646244049072266e-01</leafValues></_>
        <_>
          <internalNodes>
            0 -1 10 1.2576431035995483e-02</internalNodes>
          <leafValues>
            -8.9774036407470703e-01 8.0307680368423462e-01</leafValues></_></weakClassifiers></_>
    <!-- stage 2 -->
    <_>
      <maxWeakCount>2</maxWeakCount>
      <stageThreshold>-1.3176192343235016e-01</stageThreshold>
      <weakClassifiers>
        <_>
          <internalNodes>
            0 -1 11 2.3645770270377398e-03</internalNodes>
          <leafValues>
            -7.9696393013000488e-01 7.5193256139755249e-01</leafValues></_>
        <_>
          <internalNodes>
            0 -1 3 -6.6752359271049500e-03</internalNodes>
          <leafValues>
            6.6520202159881592e-01 -8.1201535463333130e-01</leafValues></_></weakClassifiers></_>
    <!-- stage 3 -->
    <_>
      <maxWeakCount>4</maxWeakCount>
      <stageThreshold>-1.4927245676517487e-01</stageThreshold>
      <weakClassifiers>
        <_>
          <internalNodes>
            0 -1 6 9.0308655053377151e-03</internalNodes>
          <leafValues>
            -7.2595280408859253e-01 7.5053608417510986e-01</leafValues></_>
        <_>
          <internalNodes>
            0 -1 7 -4.5411828905344009e-03</internalNodes>
          <leafValues>
            7.4571394920349121e-01 -5.3370296955108643e-01</leafValues></_>
        <_>
          <internalNodes>
            0 -1 4 -2.4821374565362930e-02</internalNodes>
          <leafValues>
            -9.0125483274459839e-01 4.3806889653205872e-01</leafValues></_>
        <_>
          <internalNodes>
            0 -1 0 6.1276052147150040e-03</internalNodes>
          <leafValues>
            -5.6031584739685059e-01 6.7231446504592896e-01</leafValues></_></weakClassifiers></_>
    <!-- stage 4 -->
    <_>
      <maxWeakCount>3</maxWeakCount>
      <stageThreshold>4.1143167763948441e-03</stageThreshold>
      <weakClassifiers>
        <_>
          <internalNodes>
            0 -1 8 -7.8603150323033333e-03</internalNodes>
          <leafValues>
            6.0836976766586304e-01 -9.2836678028106689e-01</leafValues></_>
        <_>
          <internalNodes>
            0 -1 11 4.4112987816333771e-03</internalNodes>
          <leafValues>
            -6.5461415052413940e-01 5.6083297729492188e-01</leafValues></_>
        <_>
          <internalNodes>
            0 -1 9 -3.8966985885053873e-03</internalNodes>
          <leafValues>
            -9.4466066360473633e-01 3.7164810299873352e-01</leafValues></_></weakClassifiers></_></stages>
  <features>
    <_>
      <rects>
        <_>
          0 8 2 3 -1.</_>
        <_>
          1 8 1 3 2.</_></rects>
      <tilted>0</tilted></_>
    <_>
      <rects>
        <_>
          1 9 4 2 -1.</_>
        <_>
          3 9 2 2 2.</_></rects>
      <tilted>0</tilted></_>
    <_>
      <rects>
        <_>
          1 9 6 3 -1.</_>
        <_>
          4 9 3 3 2.</_></rects>
      <tilted>0</tilted></_>
    <_>
      <rects>
        <_>
          2 9 2 3 -1.</_>
        <_>
          3 9 1 3 2.</_></rects>
      <tilted>0</tilted></_>
    <_>
      <rects>
        <_>
          7 10 6 1 -1.</_>
        <_>
          9 10 2 1 2.</_></rects>
      <tilted>0</tilted></_>
    <_>
      <rects>
        <_>
          8 5 4 4 -1.</_>
        <_>
          8 7 4 2 2.</_></rects>
      <tilted>0</tilted></_>
    <_>
      <rects>
        <_>
          8 12 4 4 -1.</_>
        <_>
          8 14 4 2 2.</_></rects>
      <tilted>0</tilted></_>
    <_>
      <rects>
        <_>
          9 5 2 2 -1.</_>
        <_>
          9 6 2 1 2.</_></rects>
      <tilted>0</tilted></_>
    <_>
      <rects>
        <_>
          9 5 2 6 -1.</_>
        <_>
          9 8 2 3 2.</_></rects>
      <tilted>0</tilted></_>
    <_>
      <rects>
        <_>
          9 7 2 4 -1.</_>
        <_>
          9 9 2 2 2.</_></rects>
      <tilted>0</tilted></_>
    <_>
      <rects>
        <_>
          15 8 4 4 -1.</_>
        <_>
          17 8 2 4 2.</_></rects>
      <tilted>0</tilted></_>
    <_>
      <rects>
        <_>
          17 9 2 2 -1.</_>
        <_>
          18 9 1 2 2.</_></rects>
      <tilted>0</tilted></_></features></cascade>
</opencv_storage>
